SVM-light Version V6.20
0 # kernel type
3 # kernel parameter -d 
1 # kernel parameter -g 
1 # kernel parameter -s 
1 # kernel parameter -r 
empty# kernel parameter -u 
47 # highest feature index 
9 # number of training documents 
2 # number of support vectors plus 1 
0 # threshold b, each following line is a SV (starting with alpha*y)
1 1:0.074110679 2:0.031082403 3:0.068606153 4:-0.11543377 5:0.073435038 11:0.031299237 12:0.028171247 13:0.077022284 14:-0.052164771 15:0.029182089 16:0.11280589 17:-0.020399878 18:-0.15126179 19:-0.22457877 20:0.11250339 21:0.24372011 22:0.27839366 23:0.52805769 24:0.30612913 25:0.071103968 26:0.04727558 27:0.04178321 28:0.065822423 29:0.077199765 30:0.072156124 31:0.070961498 32:0.082303561 33:0.011925888 34:0.053790517 35:0.098630376 36:0.034425989 37:0.23456718 38:0.28656039 39:0.50252253 40:0.31077966 41:-0.12471859 42:-0.20301981 44:-0.0099118482 45:-0.01074335 46:-0.02288538 #
