SVM-light Version V6.20
0 # kernel type
3 # kernel parameter -d 
1 # kernel parameter -g 
1 # kernel parameter -s 
1 # kernel parameter -r 
empty# kernel parameter -u 
47 # highest feature index 
12 # number of training documents 
2 # number of support vectors plus 1 
0 # threshold b, each following line is a SV (starting with alpha*y)
1 1:0.0031569044 2:0.081915796 3:0.17308117 4:-0.0075923651 5:0.024066877 6:0.011613891 7:0.11130415 8:-0.01390587 9:0.026562141 10:-0.035682391 11:0.084833249 12:0.032928705 13:0.18858685 14:-0.0063184388 15:0.22876082 16:-0.11066807 17:0.064186662 18:-0.26485956 19:0.02740955 20:-0.12508206 21:0.17505182 22:0.20759615 23:0.64020956 24:0.16261782 25:0.28092471 26:-0.033329722 27:-0.12754685 28:0.1373668 29:0.11680603 30:-0.016636567 31:-0.081226476 32:0.12027727 33:-0.0080125183 34:-0.073047429 35:0.072230011 36:-0.036140308 37:0.16908455 38:0.17574517 39:0.63126987 40:0.17473015 41:-0.12324266 42:-0.068975382 43:-0.050970428 44:0.039842784 45:0.075990245 46:-0.15209731 #
