SVM-light Version V6.20
0 # kernel type
3 # kernel parameter -d 
1 # kernel parameter -g 
1 # kernel parameter -s 
1 # kernel parameter -r 
empty# kernel parameter -u 
47 # highest feature index 
28 # number of training documents 
2 # number of support vectors plus 1 
0 # threshold b, each following line is a SV (starting with alpha*y)
1 1:-0.10217191 2:0.040456936 3:0.14384025 4:-0.38242349 5:-0.10809444 11:-0.050789043 12:0.026156705 13:0.19936907 14:-0.15756372 15:-0.062181026 16:0.30197328 17:-0.10743272 18:-0.40035453 19:-0.39469197 20:0.30152071 21:0.26993114 22:0.14009441 23:1.2168916 24:0.14990525 25:0.16593289 26:-0.034667339 27:0.03496122 28:0.13596472 29:0.15274107 30:0.017161995 31:-0.0018951803 32:0.12363592 33:0.076238528 34:0.099660635 35:0.32813451 36:0.030222777 37:0.30946845 38:0.22521637 39:1.1262302 40:0.22159149 41:-0.13434301 42:-0.38092953 44:0.036427747 45:-0.00086109689 46:-0.058450591 #
