SVM-light Version V6.20
0 # kernel type
3 # kernel parameter -d 
1 # kernel parameter -g 
1 # kernel parameter -s 
1 # kernel parameter -r 
empty# kernel parameter -u 
47 # highest feature index 
9 # number of training documents 
2 # number of support vectors plus 1 
0 # threshold b, each following line is a SV (starting with alpha*y)
1 1:0.082270935 2:0.0008299044 3:0.063514411 4:-0.027957549 5:0.082132295 11:0.064835243 12:0.0069251284 13:0.060103875 14:-0.019604594 15:0.064122349 16:0.041103143 17:-0.05426684 18:-0.034655068 19:-0.088217564 20:0.040979877 21:0.28617698 22:0.2449014 23:0.51478916 24:0.24590345 25:0.16920052 26:0.16411732 27:0.11246777 28:0.15571025 29:0.097434036 30:0.089385778 31:0.08243522 32:0.092987075 33:-0.0020513516 34:-0.002049848 35:0.004409309 36:-0.01329041 37:0.26823834 38:0.24841931 39:0.4884012 40:0.24507079 41:-0.050435942 42:-0.072992586 44:-0.0515288 45:-0.099210396 46:-0.084757544 #
