SVM-light Version V6.20
0 # kernel type
3 # kernel parameter -d 
1 # kernel parameter -g 
1 # kernel parameter -s 
1 # kernel parameter -r 
empty# kernel parameter -u 
47 # highest feature index 
8 # number of training documents 
2 # number of support vectors plus 1 
0 # threshold b, each following line is a SV (starting with alpha*y)
1 1:0.082662955 2:0.012607496 3:0.065076157 4:-0.03916496 5:0.082344182 11:0.06067501 12:0.019864159 13:0.072831072 14:-0.038417134 15:0.059190791 16:0.020182827 17:-0.01506457 18:-0.024383318 19:-0.12164736 20:0.02006986 21:0.30709329 22:0.22490987 23:0.4927344 24:0.22125179 25:0.12732939 26:0.12214398 27:0.11372552 28:0.13681132 29:0.075024419 30:0.088041157 31:0.088838466 32:0.099531099 33:-0.0077596279 34:-0.0043029361 35:-0.014951991 36:-0.0013224455 37:0.29369754 38:0.23069349 39:0.47038814 40:0.22797853 41:-0.044561189 42:-0.10470813 44:-0.02673438 45:-0.060093462 46:-0.0075039053 #
